<?xml version="1.0"?>
<opencv_storage>
<my_svm type_id="opencv-ml-svm">
  <svm_type>C_SVC</svm_type>
  <kernel><type>LINEAR</type></kernel>
  <C>1.</C>
  <term_criteria><epsilon>2.2204460492503131e-016</epsilon>
    <iterations>300</iterations></term_criteria>
  <var_all>324</var_all>
  <var_count>324</var_count>
  <class_count>3</class_count>
  <class_labels type_id="opencv-matrix">
    <rows>1</rows>
    <cols>3</cols>
    <dt>i</dt>
    <data>
      0 1 3</data></class_labels>
  <sv_total>3</sv_total>
  <support_vectors>
    <_>
      -1.89686471e-005 -6.70402151e-005 1.10940018e-005 8.55045364e-005
      5.14762469e-005 1.87369733e-005 3.15920224e-005 6.02309628e-005
      -2.14565425e-005 -4.96502162e-006 -3.29458126e-005 1.64195626e-005
      9.95093433e-005 6.97161740e-005 -7.68655445e-005 3.76528660e-005
      4.13462913e-005 2.14980514e-006 -1.87564237e-005 -4.09872700e-005
      1.40007905e-005 1.10582310e-004 -4.27106579e-006 7.41433323e-005
      -6.47555717e-005 1.24007029e-005 -2.95626232e-005 -2.19230024e-005
      -1.83541251e-005 -3.47597415e-005 -2.64898863e-005
      -3.06263901e-005 -5.16350883e-005 -3.16982987e-005 8.75478418e-006
      -9.60718080e-006 -1.87564237e-005 -4.09872700e-005 1.40007905e-005
      1.10582310e-004 -4.27106579e-006 7.41433323e-005 -6.47555717e-005
      1.24007029e-005 -2.95626232e-005 -2.19230024e-005 -1.83541251e-005
      -3.47597415e-005 -2.64898863e-005 -3.06263901e-005
      -5.16350883e-005 -3.16982987e-005 8.75478418e-006 -9.60718080e-006
      3.25148562e-006 -1.60131385e-005 -4.92277723e-005 3.51043855e-005
      -1.74463421e-005 7.51003099e-005 1.53232540e-005 -7.46180433e-007
      1.23773871e-005 -8.15621479e-006 -1.04058872e-005 1.41984983e-005
      2.10620747e-005 1.35371647e-005 -2.07922858e-006 -2.70256842e-005
      -2.15833497e-005 -8.48342006e-006 3.25148562e-006 -1.60131385e-005
      -4.92277723e-005 3.51043855e-005 -1.74463421e-005 7.51003099e-005
      1.53232540e-005 -7.46180433e-007 1.23773871e-005 -8.15621479e-006
      -1.04058872e-005 1.41984983e-005 2.10620747e-005 1.35371647e-005
      -2.07922858e-006 -2.70256842e-005 -2.15833497e-005
      -8.48342006e-006 -3.62994651e-005 -9.71841073e-005 7.75489316e-005
      -3.12149714e-005 -4.47288994e-006 3.05626927e-005 -5.06311699e-006
      1.26159121e-005 3.29284812e-005 9.55889027e-006 -2.17011675e-005
      3.12832381e-005 -1.58654031e-004 -4.80487870e-005 3.23136774e-005
      -1.69761024e-005 -1.64102300e-006 1.32154128e-006 -4.96502162e-006
      -3.29458126e-005 1.64195626e-005 9.95093433e-005 6.97161740e-005
      -7.68655445e-005 3.76528660e-005 4.13462913e-005 2.14980514e-006
      1.40190277e-005 -1.87349924e-005 -1.14450825e-006 1.69229661e-005
      -2.41919643e-005 -1.03173566e-004 -2.02257906e-005
      -4.18516465e-005 1.02281601e-005 -2.19230024e-005 -1.83541251e-005
      -3.47597415e-005 -2.64898863e-005 -3.06263901e-005
      -5.16350883e-005 -3.16982987e-005 8.75478418e-006 -9.60718080e-006
      -1.15303317e-006 -3.30291073e-006 4.00743147e-006 -5.33860548e-005
      2.61173482e-005 1.68470160e-005 -1.68215538e-005 -8.78506853e-006
      -7.56587588e-006 -2.19230024e-005 -1.83541251e-005
      -3.47597415e-005 -2.64898863e-005 -3.06263901e-005
      -5.16350883e-005 -3.16982987e-005 8.75478418e-006 -9.60718080e-006
      -1.15303317e-006 -3.30291073e-006 4.00743147e-006 -5.33860548e-005
      2.61173482e-005 1.68470160e-005 -1.68215538e-005 -8.78506853e-006
      -7.56587588e-006 -8.15621479e-006 -1.04058872e-005 1.41984983e-005
      2.10620747e-005 1.35371647e-005 -2.07922858e-006 -2.70256842e-005
      -2.15833497e-005 -8.48342006e-006 -2.08896745e-005 8.05359741e-006
      5.49488277e-006 2.78638581e-005 -4.01369034e-005 -3.87668188e-005
      3.25677247e-005 -9.96594736e-006 -6.34648895e-005 -8.15621479e-006
      -1.04058872e-005 1.41984983e-005 2.10620747e-005 1.35371647e-005
      -2.07922858e-006 -2.70256842e-005 -2.15833497e-005
      -8.48342006e-006 -2.08896745e-005 8.05359741e-006 5.49488277e-006
      2.78638581e-005 -4.01369034e-005 -3.87668188e-005 3.25677247e-005
      -9.96594736e-006 -6.34648895e-005 9.55889027e-006 -2.17011675e-005
      3.12832381e-005 -1.58654031e-004 -4.80487870e-005 3.23136774e-005
      -1.69761024e-005 -1.64102300e-006 1.32154128e-006 -4.20134256e-006
      2.17220713e-005 2.31162574e-007 -1.31957640e-004 -4.47602506e-005
      -3.01825585e-005 -7.27960878e-006 -1.46791557e-004
      -2.16519129e-006 1.40190277e-005 -1.87349924e-005 -1.14450825e-006
      1.69229661e-005 -2.41919643e-005 -1.03173566e-004 -2.02257906e-005
      -4.18516465e-005 1.02281601e-005 -1.62778292e-006 -4.54050787e-005
      -9.42791485e-006 1.54245172e-005 2.54561655e-005 2.39126784e-005
      -9.40790560e-005 -1.16207575e-005 -3.42772978e-006
      -1.15303317e-006 -3.30291073e-006 4.00743147e-006 -5.33860548e-005
      2.61173482e-005 1.68470160e-005 -1.68215538e-005 -8.78506853e-006
      -7.56587588e-006 3.01142336e-006 -9.74630166e-006 -2.98941231e-005
      -7.57620801e-005 6.26447900e-006 9.19473496e-006 -4.27514124e-006
      -1.60009746e-004 -3.01230921e-005 -1.15303317e-006
      -3.30291073e-006 4.00743147e-006 -5.33860548e-005 2.61173482e-005
      1.68470160e-005 -1.68215538e-005 -8.78506853e-006 -7.56587588e-006
      3.01142336e-006 -9.74630166e-006 -2.98941231e-005 -7.57620801e-005
      6.26447900e-006 9.19473496e-006 -4.27514124e-006 -1.60009746e-004
      -3.01230921e-005 -2.08896745e-005 8.05359741e-006 5.49488277e-006
      2.78638581e-005 -4.01369034e-005 -3.87668188e-005 3.25677247e-005
      -9.96594736e-006 -6.34648895e-005 6.38362053e-006 -2.53003818e-005
      -3.38345417e-005 1.36088454e-006 -3.68458836e-006 6.41047427e-006
      2.34823642e-006 -1.32295900e-004 -1.13168380e-005 -2.08896745e-005
      8.05359741e-006 5.49488277e-006 2.78638581e-005 -4.01369034e-005
      -3.87668188e-005 3.25677247e-005 -9.96594736e-006 -6.34648895e-005
      6.38362053e-006 -2.53003818e-005 -3.38345417e-005 1.36088454e-006
      -3.68458836e-006 6.41047427e-006 2.34823642e-006 -1.32295900e-004
      -1.13168380e-005 -4.20134256e-006 2.17220713e-005 2.31162574e-007
      -1.31957640e-004 -4.47602506e-005 -3.01825585e-005
      -7.27960878e-006 -1.46791557e-004 -2.16519129e-006
      -5.32177219e-005 1.02223403e-005 5.37252454e-005 1.33758283e-006
      1.81073974e-005 -2.10445651e-005 6.33934769e-006 -1.33715759e-004
      -5.63351423e-005</_>
    <_>
      6.45890987e-006 -2.35590642e-006 1.85357858e-005 4.49805011e-005
      -2.31069589e-005 3.34042011e-006 -2.23847965e-005 4.21180921e-005
      2.57546640e-006 -2.24204759e-005 -1.19796623e-005 -1.09815273e-005
      7.57136559e-006 1.46655520e-005 2.20469519e-006 2.37189688e-005
      -1.12977032e-004 2.43413228e-006 1.35646837e-006 2.95579594e-006
      -1.36051467e-005 -1.37445650e-005 -1.17483285e-006 1.62156739e-005
      1.13392198e-005 1.95329267e-005 2.28314161e-006 4.00033105e-006
      4.14010265e-006 -1.30537610e-005 2.49993736e-005 2.71245358e-006
      4.24190512e-006 1.86754023e-005 -2.11494498e-005 7.75287208e-006
      1.35646837e-006 2.95579594e-006 -1.36051467e-005 -1.37445650e-005
      -1.17483285e-006 1.62156739e-005 1.13392198e-005 1.95329267e-005
      2.28314161e-006 4.00033105e-006 4.14010265e-006 -1.30537610e-005
      2.49993736e-005 2.71245358e-006 4.24190512e-006 1.86754023e-005
      -2.11494498e-005 7.75287208e-006 5.43283431e-006 9.71469854e-006
      -2.16131975e-005 -9.92912028e-005 -4.87692068e-006
      -3.13200587e-007 1.16707895e-006 1.89387902e-005 4.56674570e-006
      4.07343259e-006 5.85750013e-006 -1.51030745e-005 -1.66741138e-005
      -2.95758055e-005 6.50647780e-006 1.40516240e-005 3.28615388e-005
      3.07815071e-006 5.43283431e-006 9.71469854e-006 -2.16131975e-005
      -9.92912028e-005 -4.87692068e-006 -3.13200587e-007 1.16707895e-006
      1.89387902e-005 4.56674570e-006 4.07343259e-006 5.85750013e-006
      -1.51030745e-005 -1.66741138e-005 -2.95758055e-005 6.50647780e-006
      1.40516240e-005 3.28615388e-005 3.07815071e-006 4.99121370e-006
      6.36720551e-006 1.80059233e-005 1.17422869e-005 -3.41594955e-006
      -3.24309531e-006 -8.60356977e-006 1.76830836e-005 7.81948984e-006
      6.48032483e-006 5.20136473e-006 1.44624519e-005 -3.11559015e-005
      -2.28923182e-006 -4.10247685e-006 4.32558181e-006 6.25066195e-006
      5.68184623e-006 -2.24204759e-005 -1.19796623e-005 -1.09815273e-005
      7.57136559e-006 1.46655520e-005 2.20469519e-006 2.37189688e-005
      -1.12977032e-004 2.43413228e-006 -1.28130259e-005 -1.34352797e-006
      -6.10303359e-005 -6.38845768e-006 8.37377456e-007 7.16828345e-006
      -9.82505662e-006 -1.37898925e-004 -7.90707418e-006 4.00033105e-006
      4.14010265e-006 -1.30537610e-005 2.49993736e-005 2.71245358e-006
      4.24190512e-006 1.86754023e-005 -2.11494498e-005 7.75287208e-006
      7.81672770e-006 9.69418352e-007 5.75648073e-006 1.44617725e-005
      2.55294640e-006 3.34849096e-006 9.58037526e-006 -1.20049990e-004
      -1.13671686e-005 4.00033105e-006 4.14010265e-006 -1.30537610e-005
      2.49993736e-005 2.71245358e-006 4.24190512e-006 1.86754023e-005
      -2.11494498e-005 7.75287208e-006 7.81672770e-006 9.69418352e-007
      5.75648073e-006 1.44617725e-005 2.55294640e-006 3.34849096e-006
      9.58037526e-006 -1.20049990e-004 -1.13671686e-005 4.07343259e-006
      5.85750013e-006 -1.51030745e-005 -1.66741138e-005 -2.95758055e-005
      6.50647780e-006 1.40516240e-005 3.28615388e-005 3.07815071e-006
      3.91780759e-006 5.99005307e-006 -1.01577225e-005 -2.82699311e-005
      -7.01190629e-006 1.15161185e-006 1.92612224e-005 -1.02406011e-006
      3.97128730e-007 4.07343259e-006 5.85750013e-006 -1.51030745e-005
      -1.66741138e-005 -2.95758055e-005 6.50647780e-006 1.40516240e-005
      3.28615388e-005 3.07815071e-006 3.91780759e-006 5.99005307e-006
      -1.01577225e-005 -2.82699311e-005 -7.01190629e-006 1.15161185e-006
      1.92612224e-005 -1.02406011e-006 3.97128730e-007 6.48032483e-006
      5.20136473e-006 1.44624519e-005 -3.11559015e-005 -2.28923182e-006
      -4.10247685e-006 4.32558181e-006 6.25066195e-006 5.68184623e-006
      9.59895624e-006 2.97435909e-005 -1.83680331e-005 2.98395162e-006
      -7.24083611e-006 4.56910448e-006 1.78763312e-005 4.74866920e-006
      4.01737134e-006 -1.28130259e-005 -1.34352797e-006 -6.10303359e-005
      -6.38845768e-006 8.37377456e-007 7.16828345e-006 -9.82505662e-006
      -1.37898925e-004 -7.90707418e-006 -2.45602519e-006 1.53013718e-006
      -4.21517252e-005 -4.29513202e-005 7.50172467e-006 1.16155516e-005
      -4.76417081e-005 -2.79647938e-005 -1.71051840e-006 7.81672770e-006
      9.69418352e-007 5.75648073e-006 1.44617725e-005 2.55294640e-006
      3.34849096e-006 9.58037526e-006 -1.20049990e-004 -1.13671686e-005
      1.70110738e-007 3.38109066e-006 -1.86573644e-007 -1.59693882e-005
      -2.50589665e-006 7.69627059e-006 -3.82836370e-005 -1.08031199e-004
      -2.47939497e-005 7.81672770e-006 9.69418352e-007 5.75648073e-006
      1.44617725e-005 2.55294640e-006 3.34849096e-006 9.58037526e-006
      -1.20049990e-004 -1.13671686e-005 1.70110738e-007 3.38109066e-006
      -1.86573644e-007 -1.59693882e-005 -2.50589665e-006 7.69627059e-006
      -3.82836370e-005 -1.08031199e-004 -2.47939497e-005 3.91780759e-006
      5.99005307e-006 -1.01577225e-005 -2.82699311e-005 -7.01190629e-006
      1.15161185e-006 1.92612224e-005 -1.02406011e-006 3.97128730e-007
      2.15626801e-006 1.39651047e-005 9.95149912e-006 -1.83682077e-005
      -5.94822677e-006 -4.80597646e-006 -2.57333922e-005
      -8.82925742e-005 -2.28457211e-005 3.91780759e-006 5.99005307e-006
      -1.01577225e-005 -2.82699311e-005 -7.01190629e-006 1.15161185e-006
      1.92612224e-005 -1.02406011e-006 3.97128730e-007 2.15626801e-006
      1.39651047e-005 9.95149912e-006 -1.83682077e-005 -5.94822677e-006
      -4.80597646e-006 -2.57333922e-005 -8.82925742e-005
      -2.28457211e-005 9.59895624e-006 2.97435909e-005 -1.83680331e-005
      2.98395162e-006 -7.24083611e-006 4.56910448e-006 1.78763312e-005
      4.74866920e-006 4.01737134e-006 1.12832913e-005 2.65467897e-005
      -1.54529807e-005 -8.39897621e-005 -3.26262380e-005 4.48747551e-006
      9.93284539e-006 -2.55211216e-005 -3.43148349e-006</_>
    <_>
      -1.21522262e-005 2.16291319e-005 8.48940817e-006 -9.05377601e-005
      -7.74839500e-005 -1.60690593e-006 -3.22894703e-005
      -1.67366888e-005 -3.44224986e-006 -1.44603628e-005 7.45273292e-006
      -4.56526914e-006 -1.03564598e-005 1.54704958e-005 3.81638019e-005
      2.09298037e-006 -7.75354056e-005 -3.17308127e-006 9.42964334e-007
      5.69529402e-005 -1.05665667e-005 -1.47620012e-004 -3.58637553e-005
      2.41606795e-005 2.51600541e-005 -9.16723366e-006 -1.03427385e-006
      1.03141056e-005 6.00934345e-006 1.30337439e-005 -1.87141704e-005
      2.21042896e-007 2.02264946e-005 1.48342269e-005 -1.33146914e-005
      9.97567167e-006 9.42964334e-007 5.69529402e-005 -1.05665667e-005
      -1.47620012e-004 -3.58637553e-005 2.41606795e-005 2.51600541e-005
      -9.16723366e-006 -1.03427385e-006 1.03141056e-005 6.00934345e-006
      1.30337439e-005 -1.87141704e-005 2.21042896e-007 2.02264946e-005
      1.48342269e-005 -1.33146914e-005 9.97567167e-006 1.19160177e-005
      6.48861605e-005 2.62397789e-005 -9.74103750e-005 -2.27238252e-005
      1.46829302e-006 -2.55209907e-005 -1.52631310e-005 -4.30360660e-006
      1.18755179e-006 2.43185841e-005 -1.66427708e-005 -1.71735519e-005
      -1.04528945e-005 4.40977647e-006 -8.13729184e-006 9.85434417e-006
      5.05193441e-007 1.19160177e-005 6.48861605e-005 2.62397789e-005
      -9.74103750e-005 -2.27238252e-005 1.46829302e-006 -2.55209907e-005
      -1.52631310e-005 -4.30360660e-006 1.18755179e-006 2.43185841e-005
      -1.66427708e-005 -1.71735519e-005 -1.04528945e-005 4.40977647e-006
      -8.13729184e-006 9.85434417e-006 5.05193441e-007 1.78237842e-005
      7.26199505e-005 7.62709442e-006 -2.45310148e-005 -2.92907657e-006
      -4.41320026e-006 -4.02615151e-005 -3.42895801e-005 2.52237237e-006
      1.00470725e-005 2.23574843e-005 1.13960032e-005 1.15909443e-005
      1.99543701e-005 -1.04953797e-005 -9.67074357e-006 1.98134990e-006
      5.65687651e-006 -1.44603628e-005 7.45273292e-006 -4.56526914e-006
      -1.03564598e-005 1.54704958e-005 3.81638019e-005 2.09298037e-006
      -7.75354056e-005 -3.17308127e-006 -2.24400392e-005 2.67961605e-005
      -3.12870816e-006 -2.20666025e-005 1.75667628e-005 1.68625702e-005
      1.06406360e-005 -6.97187206e-005 -4.28213207e-005 1.03141056e-005
      6.00934345e-006 1.30337439e-005 -1.87141704e-005 2.21042896e-007
      2.02264946e-005 1.48342269e-005 -1.33146914e-005 9.97567167e-006
      1.39709584e-006 1.68196657e-005 6.05134119e-006 3.37325619e-005
      1.29438940e-005 1.23456257e-005 -1.11282934e-005 -4.93935149e-005
      -2.03846193e-005 1.03141056e-005 6.00934345e-006 1.30337439e-005
      -1.87141704e-005 2.21042896e-007 2.02264946e-005 1.48342269e-005
      -1.33146914e-005 9.97567167e-006 1.39709584e-006 1.68196657e-005
      6.05134119e-006 3.37325619e-005 1.29438940e-005 1.23456257e-005
      -1.11282934e-005 -4.93935149e-005 -2.03846193e-005 1.18755179e-006
      2.43185841e-005 -1.66427708e-005 -1.71735519e-005 -1.04528945e-005
      4.40977647e-006 -8.13729184e-006 9.85434417e-006 5.05193441e-007
      2.38954613e-006 6.57441205e-006 -1.06263169e-005 -2.62904109e-006
      1.39944350e-005 3.70036651e-005 -4.68593640e-007 1.47528294e-006
      5.36789003e-006 1.18755179e-006 2.43185841e-005 -1.66427708e-005
      -1.71735519e-005 -1.04528945e-005 4.40977647e-006 -8.13729184e-006
      9.85434417e-006 5.05193441e-007 2.38954613e-006 6.57441205e-006
      -1.06263169e-005 -2.62904109e-006 1.39944350e-005 3.70036651e-005
      -4.68593640e-007 1.47528294e-006 5.36789003e-006 1.00470725e-005
      2.23574843e-005 1.13960032e-005 1.15909443e-005 1.99543701e-005
      -1.04953797e-005 -9.67074357e-006 1.98134990e-006 5.65687651e-006
      5.22097992e-007 6.10468442e-006 -2.55639279e-005 5.34283608e-005
      4.48426254e-005 4.25660837e-005 4.58698378e-006 4.44303078e-006
      1.12365717e-006 -2.24400392e-005 2.67961605e-005 -3.12870816e-006
      -2.20666025e-005 1.75667628e-005 1.68625702e-005 1.06406360e-005
      -6.97187206e-005 -4.28213207e-005 7.35576168e-006 9.34630662e-005
      -6.09247691e-005 -3.85497697e-005 -1.12320288e-006 4.67818325e-007
      -1.23766104e-005 -3.00070005e-005 -8.67722974e-006 1.39709584e-006
      1.68196657e-005 6.05134119e-006 3.37325619e-005 1.29438940e-005
      1.23456257e-005 -1.11282934e-005 -4.93935149e-005 -2.03846193e-005
      1.56391325e-005 4.53326793e-005 1.86072684e-005 -7.44633962e-006
      1.71717238e-006 -1.78522413e-007 -3.42404819e-005 -2.40213794e-005
      1.97661097e-006 1.39709584e-006 1.68196657e-005 6.05134119e-006
      3.37325619e-005 1.29438940e-005 1.23456257e-005 -1.11282934e-005
      -4.93935149e-005 -2.03846193e-005 1.56391325e-005 4.53326793e-005
      1.86072684e-005 -7.44633962e-006 1.71717238e-006 -1.78522413e-007
      -3.42404819e-005 -2.40213794e-005 1.97661097e-006 2.38954613e-006
      6.57441205e-006 -1.06263169e-005 -2.62904109e-006 1.39944350e-005
      3.70036651e-005 -4.68593640e-007 1.47528294e-006 5.36789003e-006
      4.52118957e-006 6.32360889e-006 -1.12368173e-006 -1.36093868e-005
      4.24156997e-006 3.46956313e-006 -9.39171605e-006 5.06268880e-005
      1.63892946e-005 2.38954613e-006 6.57441205e-006 -1.06263169e-005
      -2.62904109e-006 1.39944350e-005 3.70036651e-005 -4.68593640e-007
      1.47528294e-006 5.36789003e-006 4.52118957e-006 6.32360889e-006
      -1.12368173e-006 -1.36093868e-005 4.24156997e-006 3.46956313e-006
      -9.39171605e-006 5.06268880e-005 1.63892946e-005 5.22097992e-007
      6.10468442e-006 -2.55639279e-005 5.34283608e-005 4.48426254e-005
      4.25660837e-005 4.58698378e-006 4.44303078e-006 1.12365717e-006
      1.37563075e-005 -2.74777733e-007 -4.18957170e-005 -5.52418096e-005
      -3.12534357e-005 1.54719419e-006 -1.26918144e-006 1.00613697e-005
      3.28238020e-005</_></support_vectors>
  <decision_functions>
    <_>
      <sv_count>1</sv_count>
      <rho>-1.8076308415865969e+000</rho>
      <alpha>
        1.</alpha>
      <index>
        0</index></_>
    <_>
      <sv_count>1</sv_count>
      <rho>-1.9876977426288509e+000</rho>
      <alpha>
        1.</alpha>
      <index>
        1</index></_>
    <_>
      <sv_count>1</sv_count>
      <rho>-5.2483095729160167e-001</rho>
      <alpha>
        1.</alpha>
      <index>
        2</index></_></decision_functions></my_svm>
</opencv_storage>
