<?xml version="1.0"?>
<opencv_storage>
<my_svm type_id="opencv-ml-svm">
  <svm_type>C_SVC</svm_type>
  <kernel><type>LINEAR</type></kernel>
  <C>1.</C>
  <term_criteria><epsilon>2.2204460492503131e-016</epsilon>
    <iterations>300</iterations></term_criteria>
  <var_all>324</var_all>
  <var_count>324</var_count>
  <class_count>3</class_count>
  <class_labels type_id="opencv-matrix">
    <rows>1</rows>
    <cols>3</cols>
    <dt>i</dt>
    <data>
      0 1 3</data></class_labels>
  <sv_total>3</sv_total>
  <support_vectors>
    <_>
      -3.12338525e-005 -7.66865705e-005 4.46346849e-006 9.24863925e-005
      4.78921465e-005 2.25499662e-005 1.95373032e-005 4.72140709e-005
      -2.20587390e-005 -6.09984181e-006 -5.24521565e-005 2.42949336e-005
      1.06106520e-004 8.05761229e-005 -8.87615897e-005 3.39856706e-005
      5.44083014e-005 1.02679160e-005 -2.40995432e-005 -4.78462680e-005
      1.74321012e-005 1.31688867e-004 -1.24806102e-005 7.86082310e-005
      -3.96486867e-005 1.42065903e-006 -3.52580028e-005 -2.96750513e-005
      -1.69453033e-005 -2.83962345e-005 -2.48765064e-005
      -3.39495018e-005 -5.08216799e-005 -1.95576540e-005 1.86876678e-005
      -1.32336118e-005 -2.40995432e-005 -4.78462680e-005 1.74321012e-005
      1.31688867e-004 -1.24806102e-005 7.86082310e-005 -3.96486867e-005
      1.42065903e-006 -3.52580028e-005 -2.96750513e-005 -1.69453033e-005
      -2.83962345e-005 -2.48765064e-005 -3.39495018e-005
      -5.08216799e-005 -1.95576540e-005 1.86876678e-005 -1.32336118e-005
      5.85442592e-007 -4.04217972e-005 -4.04625243e-005 3.81240206e-005
      -2.52122845e-005 7.91469865e-005 6.06406593e-006 -4.51681262e-006
      1.10818428e-005 1.73929711e-005 -6.17122350e-006 1.93713659e-005
      2.45542960e-005 2.33129249e-005 3.02735498e-006 -3.71656533e-005
      -2.86866816e-005 -6.49155368e-007 5.85442592e-007 -4.04217972e-005
      -4.04625243e-005 3.81240206e-005 -2.52122845e-005 7.91469865e-005
      6.06406593e-006 -4.51681262e-006 1.10818428e-005 1.73929711e-005
      -6.17122350e-006 1.93713659e-005 2.45542960e-005 2.33129249e-005
      3.02735498e-006 -3.71656533e-005 -2.86866816e-005 -6.49155368e-007
      -3.64609041e-005 -8.98270227e-005 5.38190179e-005 -4.53868888e-005
      -1.15261673e-005 5.10237187e-005 -1.72686907e-006 9.50323829e-006
      2.76708779e-005 2.76384908e-005 1.86436846e-005 1.75103614e-005
      -1.78678456e-004 -4.82313117e-005 4.79979462e-005 -2.01684779e-005
      -1.08231234e-005 -1.72527791e-006 -6.09984181e-006
      -5.24521565e-005 2.42949336e-005 1.06106520e-004 8.05761229e-005
      -8.87615897e-005 3.39856706e-005 5.44083014e-005 1.02679160e-005
      2.74144077e-005 -1.76043668e-005 -1.93856613e-006 2.14244737e-005
      -3.43139363e-005 -1.18767653e-004 -2.30207297e-005
      -1.04545370e-005 2.14068932e-005 -2.96750513e-005 -1.69453033e-005
      -2.83962345e-005 -2.48765064e-005 -3.39495018e-005
      -5.08216799e-005 -1.95576540e-005 1.86876678e-005 -1.32336118e-005
      1.45433032e-005 -5.75342438e-006 -2.02058482e-006 -5.27769043e-005
      2.91656961e-005 1.91954241e-005 -2.06743971e-006 -6.82294194e-006
      1.85032131e-005 -2.96750513e-005 -1.69453033e-005 -2.83962345e-005
      -2.48765064e-005 -3.39495018e-005 -5.08216799e-005
      -1.95576540e-005 1.86876678e-005 -1.32336118e-005 1.45433032e-005
      -5.75342438e-006 -2.02058482e-006 -5.27769043e-005 2.91656961e-005
      1.91954241e-005 -2.06743971e-006 -6.82294194e-006 1.85032131e-005
      1.73929711e-005 -6.17122350e-006 1.93713659e-005 2.45542960e-005
      2.33129249e-005 3.02735498e-006 -3.71656533e-005 -2.86866816e-005
      -6.49155368e-007 1.80684845e-006 4.07989137e-005 3.46586876e-006
      2.22860017e-005 -4.41881639e-005 -4.45773185e-005 2.81805351e-005
      -1.23532282e-005 -3.71651076e-005 1.73929711e-005 -6.17122350e-006
      1.93713659e-005 2.45542960e-005 2.33129249e-005 3.02735498e-006
      -3.71656533e-005 -2.86866816e-005 -6.49155368e-007 1.80684845e-006
      4.07989137e-005 3.46586876e-006 2.22860017e-005 -4.41881639e-005
      -4.45773185e-005 2.81805351e-005 -1.23532282e-005 -3.71651076e-005
      2.76384908e-005 1.86436846e-005 1.75103614e-005 -1.78678456e-004
      -4.82313117e-005 4.79979462e-005 -2.01684779e-005 -1.08231234e-005
      -1.72527791e-006 1.56717542e-005 2.07240519e-005 -1.02995546e-005
      -1.38037576e-004 -4.83132790e-005 -2.89285854e-005
      -9.48297748e-006 -1.54913330e-004 1.08027907e-005 2.74144077e-005
      -1.76043668e-005 -1.93856613e-006 2.14244737e-005 -3.43139363e-005
      -1.18767653e-004 -2.30207297e-005 -1.04545370e-005 2.14068932e-005
      5.98069983e-006 -5.31023179e-005 -3.02433364e-005 1.35970213e-005
      1.57683353e-005 1.95256016e-005 -9.91456764e-005 2.05640208e-005
      1.50097285e-005 1.45433032e-005 -5.75342438e-006 -2.02058482e-006
      -5.27769043e-005 2.91656961e-005 1.91954241e-005 -2.06743971e-006
      -6.82294194e-006 1.85032131e-005 1.97253503e-005 -1.12243688e-005
      -4.65099511e-005 -7.22077457e-005 8.81911001e-006 1.32808191e-006
      -6.67766199e-006 -1.46700317e-004 -1.82771164e-005 1.45433032e-005
      -5.75342438e-006 -2.02058482e-006 -5.27769043e-005 2.91656961e-005
      1.91954241e-005 -2.06743971e-006 -6.82294194e-006 1.85032131e-005
      1.97253503e-005 -1.12243688e-005 -4.65099511e-005 -7.22077457e-005
      8.81911001e-006 1.32808191e-006 -6.67766199e-006 -1.46700317e-004
      -1.82771164e-005 1.80684845e-006 4.07989137e-005 3.46586876e-006
      2.22860017e-005 -4.41881639e-005 -4.45773185e-005 2.81805351e-005
      -1.23532282e-005 -3.71651076e-005 8.21313279e-006 -1.04712144e-005
      -3.60269296e-005 8.98985309e-006 -4.42020519e-006 1.50521873e-005
      -9.09559731e-006 -1.33432535e-004 -4.16067223e-006 1.80684845e-006
      4.07989137e-005 3.46586876e-006 2.22860017e-005 -4.41881639e-005
      -4.45773185e-005 2.81805351e-005 -1.23532282e-005 -3.71651076e-005
      8.21313279e-006 -1.04712144e-005 -3.60269296e-005 8.98985309e-006
      -4.42020519e-006 1.50521873e-005 -9.09559731e-006 -1.33432535e-004
      -4.16067223e-006 1.56717542e-005 2.07240519e-005 -1.02995546e-005
      -1.38037576e-004 -4.83132790e-005 -2.89285854e-005
      -9.48297748e-006 -1.54913330e-004 1.08027907e-005 -5.14825624e-005
      3.02514422e-006 4.70266023e-005 -8.20355581e-006 1.55430989e-005
      -2.38741941e-005 7.69859344e-006 -1.08671607e-004 -5.74108235e-005</_>
    <_>
      6.42634404e-006 -2.91292940e-006 1.71153297e-005 3.99254932e-005
      -3.67332905e-005 -2.22160270e-006 -2.63000784e-005 3.80644451e-005
      2.72995976e-006 -2.79622891e-005 -1.85741428e-005 -8.54126938e-006
      1.25691313e-005 9.34454692e-006 9.28802478e-007 2.13134481e-005
      -1.14814582e-004 -2.51612119e-006 2.09877840e-006 1.89177376e-006
      -1.97121735e-005 -2.77332565e-005 -1.07431588e-005 4.83693157e-006
      1.61803218e-005 1.65603469e-005 2.42048304e-006 1.39294150e-006
      6.95134941e-006 -1.89078200e-005 2.29114776e-005 -7.95398648e-007
      4.75451134e-006 3.60713748e-005 -3.73416842e-005 2.72912303e-006
      2.09877840e-006 1.89177376e-006 -1.97121735e-005 -2.77332565e-005
      -1.07431588e-005 4.83693157e-006 1.61803218e-005 1.65603469e-005
      2.42048304e-006 1.39294150e-006 6.95134941e-006 -1.89078200e-005
      2.29114776e-005 -7.95398648e-007 4.75451134e-006 3.60713748e-005
      -3.73416842e-005 2.72912303e-006 4.41134989e-006 7.26479811e-006
      -6.24548147e-006 -1.19004733e-004 -7.90577451e-006
      -5.00862598e-006 -9.32431158e-006 1.54356785e-005 3.79603784e-006
      1.30469698e-006 1.20432560e-005 -1.67231174e-005 -2.13895364e-005
      -3.54466865e-005 -2.63004472e-006 9.85267798e-006 2.52558439e-005
      1.49993207e-006 4.41134989e-006 7.26479811e-006 -6.24548147e-006
      -1.19004733e-004 -7.90577451e-006 -5.00862598e-006
      -9.32431158e-006 1.54356785e-005 3.79603784e-006 1.30469698e-006
      1.20432560e-005 -1.67231174e-005 -2.13895364e-005 -3.54466865e-005
      -2.63004472e-006 9.85267798e-006 2.52558439e-005 1.49993207e-006
      7.19936963e-007 8.90465913e-007 1.87322330e-005 -1.68327813e-006
      6.46875208e-007 1.12161661e-005 -1.65682268e-005 8.67152812e-006
      1.21713606e-006 3.44050568e-006 5.29527324e-006 -1.70660485e-006
      -5.31485093e-005 -5.56255191e-006 5.86117449e-006 4.85024202e-006
      5.63696767e-006 1.17365778e-006 -2.79622891e-005 -1.85741428e-005
      -8.54126938e-006 1.25691313e-005 9.34454692e-006 9.28802478e-007
      2.13134481e-005 -1.14814582e-004 -2.51612119e-006 -1.56296956e-005
      -2.48874494e-006 -5.94807170e-005 -1.19750193e-005
      -2.82239569e-007 6.78266133e-006 -2.25002696e-005 -1.39071781e-004
      -1.36718600e-005 1.39294150e-006 6.95134941e-006 -1.89078200e-005
      2.29114776e-005 -7.95398648e-007 4.75451134e-006 3.60713748e-005
      -3.73416842e-005 2.72912303e-006 1.06506604e-005 4.68509597e-006
      5.00574561e-006 2.00631312e-005 2.77023332e-006 1.77821232e-006
      -4.83626491e-006 -1.15480128e-004 -1.27409703e-005 1.39294150e-006
      6.95134941e-006 -1.89078200e-005 2.29114776e-005 -7.95398648e-007
      4.75451134e-006 3.60713748e-005 -3.73416842e-005 2.72912303e-006
      1.06506604e-005 4.68509597e-006 5.00574561e-006 2.00631312e-005
      2.77023332e-006 1.77821232e-006 -4.83626491e-006 -1.15480128e-004
      -1.27409703e-005 1.30469698e-006 1.20432560e-005 -1.67231174e-005
      -2.13895364e-005 -3.54466865e-005 -2.63004472e-006 9.85267798e-006
      2.52558439e-005 1.49993207e-006 5.18708157e-006 4.36995788e-006
      -2.47906119e-005 -3.65656888e-005 -3.38961240e-006 1.39706719e-006
      1.37863208e-005 -5.27209886e-006 7.24714198e-007 1.30469698e-006
      1.20432560e-005 -1.67231174e-005 -2.13895364e-005 -3.54466865e-005
      -2.63004472e-006 9.85267798e-006 2.52558439e-005 1.49993207e-006
      5.18708157e-006 4.36995788e-006 -2.47906119e-005 -3.65656888e-005
      -3.38961240e-006 1.39706719e-006 1.37863208e-005 -5.27209886e-006
      7.24714198e-007 3.44050568e-006 5.29527324e-006 -1.70660485e-006
      -5.31485093e-005 -5.56255191e-006 5.86117449e-006 4.85024202e-006
      5.63696767e-006 1.17365778e-006 6.56466455e-006 9.68239601e-006
      -2.96228645e-005 -4.66785787e-006 -1.27308283e-007 5.98466067e-006
      1.61208918e-005 2.87107923e-006 2.63265019e-006 -1.56296956e-005
      -2.48874494e-006 -5.94807170e-005 -1.19750193e-005
      -2.82239569e-007 6.78266133e-006 -2.25002696e-005 -1.39071781e-004
      -1.36718600e-005 1.91418778e-007 -6.04834668e-007 -4.66336169e-005
      -4.87002726e-005 4.22745688e-006 1.07010519e-005 -4.69989282e-005
      -2.42369661e-005 -1.54317786e-006 1.06506604e-005 4.68509597e-006
      5.00574561e-006 2.00631312e-005 2.77023332e-006 1.77821232e-006
      -4.83626491e-006 -1.15480128e-004 -1.27409703e-005 4.27843179e-006
      3.31135266e-006 -2.12588407e-006 -1.58796302e-005 -2.26288648e-006
      5.48401886e-006 -5.75694394e-005 -1.25452309e-004 -1.99161223e-005
      1.06506604e-005 4.68509597e-006 5.00574561e-006 2.00631312e-005
      2.77023332e-006 1.77821232e-006 -4.83626491e-006 -1.15480128e-004
      -1.27409703e-005 4.27843179e-006 3.31135266e-006 -2.12588407e-006
      -1.58796302e-005 -2.26288648e-006 5.48401886e-006 -5.75694394e-005
      -1.25452309e-004 -1.99161223e-005 5.18708157e-006 4.36995788e-006
      -2.47906119e-005 -3.65656888e-005 -3.38961240e-006 1.39706719e-006
      1.37863208e-005 -5.27209886e-006 7.24714198e-007 -2.37582768e-007
      1.81804069e-006 -1.10212716e-006 -3.05508474e-005 -4.83732128e-006
      -3.67347161e-006 -2.54751176e-005 -8.28185584e-005
      -2.18472596e-005 5.18708157e-006 4.36995788e-006 -2.47906119e-005
      -3.65656888e-005 -3.38961240e-006 1.39706719e-006 1.37863208e-005
      -5.27209886e-006 7.24714198e-007 -2.37582768e-007 1.81804069e-006
      -1.10212716e-006 -3.05508474e-005 -4.83732128e-006
      -3.67347161e-006 -2.54751176e-005 -8.28185584e-005
      -2.18472596e-005 6.56466455e-006 9.68239601e-006 -2.96228645e-005
      -4.66785787e-006 -1.27308283e-007 5.98466067e-006 1.61208918e-005
      2.87107923e-006 2.63265019e-006 1.55073724e-006 4.91173159e-006
      -4.74496301e-005 -9.46277214e-005 -2.78595780e-005 4.08688084e-006
      1.03441907e-005 -2.15827622e-005 1.57526486e-007</_>
    <_>
      -1.21522262e-005 2.16291319e-005 8.48940817e-006 -9.05377601e-005
      -7.74839500e-005 -1.60690593e-006 -3.22894703e-005
      -1.67366888e-005 -3.44224986e-006 -1.44603628e-005 7.45273292e-006
      -4.56526914e-006 -1.03564598e-005 1.54704958e-005 3.81638019e-005
      2.09298037e-006 -7.75354056e-005 -3.17308127e-006 9.42964334e-007
      5.69529402e-005 -1.05665667e-005 -1.47620012e-004 -3.58637553e-005
      2.41606795e-005 2.51600541e-005 -9.16723366e-006 -1.03427385e-006
      1.03141056e-005 6.00934345e-006 1.30337439e-005 -1.87141704e-005
      2.21042896e-007 2.02264946e-005 1.48342269e-005 -1.33146914e-005
      9.97567167e-006 9.42964334e-007 5.69529402e-005 -1.05665667e-005
      -1.47620012e-004 -3.58637553e-005 2.41606795e-005 2.51600541e-005
      -9.16723366e-006 -1.03427385e-006 1.03141056e-005 6.00934345e-006
      1.30337439e-005 -1.87141704e-005 2.21042896e-007 2.02264946e-005
      1.48342269e-005 -1.33146914e-005 9.97567167e-006 1.19160177e-005
      6.48861605e-005 2.62397789e-005 -9.74103750e-005 -2.27238252e-005
      1.46829302e-006 -2.55209907e-005 -1.52631310e-005 -4.30360660e-006
      1.18755179e-006 2.43185841e-005 -1.66427708e-005 -1.71735519e-005
      -1.04528945e-005 4.40977647e-006 -8.13729184e-006 9.85434417e-006
      5.05193441e-007 1.19160177e-005 6.48861605e-005 2.62397789e-005
      -9.74103750e-005 -2.27238252e-005 1.46829302e-006 -2.55209907e-005
      -1.52631310e-005 -4.30360660e-006 1.18755179e-006 2.43185841e-005
      -1.66427708e-005 -1.71735519e-005 -1.04528945e-005 4.40977647e-006
      -8.13729184e-006 9.85434417e-006 5.05193441e-007 1.78237842e-005
      7.26199505e-005 7.62709442e-006 -2.45310148e-005 -2.92907657e-006
      -4.41320026e-006 -4.02615151e-005 -3.42895801e-005 2.52237237e-006
      1.00470725e-005 2.23574843e-005 1.13960032e-005 1.15909443e-005
      1.99543701e-005 -1.04953797e-005 -9.67074357e-006 1.98134990e-006
      5.65687651e-006 -1.44603628e-005 7.45273292e-006 -4.56526914e-006
      -1.03564598e-005 1.54704958e-005 3.81638019e-005 2.09298037e-006
      -7.75354056e-005 -3.17308127e-006 -2.24400392e-005 2.67961605e-005
      -3.12870816e-006 -2.20666025e-005 1.75667628e-005 1.68625702e-005
      1.06406360e-005 -6.97187206e-005 -4.28213207e-005 1.03141056e-005
      6.00934345e-006 1.30337439e-005 -1.87141704e-005 2.21042896e-007
      2.02264946e-005 1.48342269e-005 -1.33146914e-005 9.97567167e-006
      1.39709584e-006 1.68196657e-005 6.05134119e-006 3.37325619e-005
      1.29438940e-005 1.23456257e-005 -1.11282934e-005 -4.93935149e-005
      -2.03846193e-005 1.03141056e-005 6.00934345e-006 1.30337439e-005
      -1.87141704e-005 2.21042896e-007 2.02264946e-005 1.48342269e-005
      -1.33146914e-005 9.97567167e-006 1.39709584e-006 1.68196657e-005
      6.05134119e-006 3.37325619e-005 1.29438940e-005 1.23456257e-005
      -1.11282934e-005 -4.93935149e-005 -2.03846193e-005 1.18755179e-006
      2.43185841e-005 -1.66427708e-005 -1.71735519e-005 -1.04528945e-005
      4.40977647e-006 -8.13729184e-006 9.85434417e-006 5.05193441e-007
      2.38954613e-006 6.57441205e-006 -1.06263169e-005 -2.62904109e-006
      1.39944350e-005 3.70036651e-005 -4.68593640e-007 1.47528294e-006
      5.36789003e-006 1.18755179e-006 2.43185841e-005 -1.66427708e-005
      -1.71735519e-005 -1.04528945e-005 4.40977647e-006 -8.13729184e-006
      9.85434417e-006 5.05193441e-007 2.38954613e-006 6.57441205e-006
      -1.06263169e-005 -2.62904109e-006 1.39944350e-005 3.70036651e-005
      -4.68593640e-007 1.47528294e-006 5.36789003e-006 1.00470725e-005
      2.23574843e-005 1.13960032e-005 1.15909443e-005 1.99543701e-005
      -1.04953797e-005 -9.67074357e-006 1.98134990e-006 5.65687651e-006
      5.22097992e-007 6.10468442e-006 -2.55639279e-005 5.34283608e-005
      4.48426254e-005 4.25660837e-005 4.58698378e-006 4.44303078e-006
      1.12365717e-006 -2.24400392e-005 2.67961605e-005 -3.12870816e-006
      -2.20666025e-005 1.75667628e-005 1.68625702e-005 1.06406360e-005
      -6.97187206e-005 -4.28213207e-005 7.35576168e-006 9.34630662e-005
      -6.09247691e-005 -3.85497697e-005 -1.12320288e-006 4.67818325e-007
      -1.23766104e-005 -3.00070005e-005 -8.67722974e-006 1.39709584e-006
      1.68196657e-005 6.05134119e-006 3.37325619e-005 1.29438940e-005
      1.23456257e-005 -1.11282934e-005 -4.93935149e-005 -2.03846193e-005
      1.56391325e-005 4.53326793e-005 1.86072684e-005 -7.44633962e-006
      1.71717238e-006 -1.78522413e-007 -3.42404819e-005 -2.40213794e-005
      1.97661097e-006 1.39709584e-006 1.68196657e-005 6.05134119e-006
      3.37325619e-005 1.29438940e-005 1.23456257e-005 -1.11282934e-005
      -4.93935149e-005 -2.03846193e-005 1.56391325e-005 4.53326793e-005
      1.86072684e-005 -7.44633962e-006 1.71717238e-006 -1.78522413e-007
      -3.42404819e-005 -2.40213794e-005 1.97661097e-006 2.38954613e-006
      6.57441205e-006 -1.06263169e-005 -2.62904109e-006 1.39944350e-005
      3.70036651e-005 -4.68593640e-007 1.47528294e-006 5.36789003e-006
      4.52118957e-006 6.32360889e-006 -1.12368173e-006 -1.36093868e-005
      4.24156997e-006 3.46956313e-006 -9.39171605e-006 5.06268880e-005
      1.63892946e-005 2.38954613e-006 6.57441205e-006 -1.06263169e-005
      -2.62904109e-006 1.39944350e-005 3.70036651e-005 -4.68593640e-007
      1.47528294e-006 5.36789003e-006 4.52118957e-006 6.32360889e-006
      -1.12368173e-006 -1.36093868e-005 4.24156997e-006 3.46956313e-006
      -9.39171605e-006 5.06268880e-005 1.63892946e-005 5.22097992e-007
      6.10468442e-006 -2.55639279e-005 5.34283608e-005 4.48426254e-005
      4.25660837e-005 4.58698378e-006 4.44303078e-006 1.12365717e-006
      1.37563075e-005 -2.74777733e-007 -4.18957170e-005 -5.52418096e-005
      -3.12534357e-005 1.54719419e-006 -1.26918144e-006 1.00613697e-005
      3.28238020e-005</_></support_vectors>
  <decision_functions>
    <_>
      <sv_count>1</sv_count>
      <rho>-1.7561821802855395e+000</rho>
      <alpha>
        1.</alpha>
      <index>
        0</index></_>
    <_>
      <sv_count>1</sv_count>
      <rho>-2.5620073800634096e+000</rho>
      <alpha>
        1.</alpha>
      <index>
        1</index></_>
    <_>
      <sv_count>1</sv_count>
      <rho>-5.2483095729160167e-001</rho>
      <alpha>
        1.</alpha>
      <index>
        2</index></_></decision_functions></my_svm>
</opencv_storage>
